svm_type c_svc
kernel_type rbf
gamma 0.125
nr_class 2
total_sv 75
rho 0.8888569506857813
label 1 0
nr_sv 10 65
SV
1.0 1:1.0 2:0.0 3:0.0 4:0.1428571492433548 5:1.0 6:0.0 7:199.0 8:0.0 
1.0 1:11.170552806374445 2:0.0 3:0.0 4:0.5714285969734192 5:0.0 6:0.0 7:188.0 8:0.0 
1.0 1:4.06201920231798 2:0.0 3:0.0 4:0.8571428656578064 5:0.0 6:0.0 7:107.0 8:0.0 
1.0 1:1.0 2:0.0 3:0.0 4:0.02380952425301075 5:1.0 6:0.0 7:124.0 8:0.0 
1.0 1:1.2247448713915892 2:0.0 3:0.0 4:0.0476190485060215 5:0.0 6:0.0 7:80.0 8:0.0 
1.0 1:1.0 2:0.0 3:0.0 4:0.1666666716337204 5:1.0 6:0.0 7:142.0 8:0.0 
1.0 1:3.0705978943149543 2:0.0 3:0.0 4:0.3333333432674408 5:0.0 6:0.0 7:99.0 8:0.0 
1.0 1:2.7080128015453204 2:0.0 3:0.0 4:0.5 5:0.0 6:0.0 7:58.0 8:0.0 
1.0 1:1.0 2:0.0 3:0.0 4:0.02083333395421505 5:1.0 6:0.0 7:191.0 8:0.0 
1.0 1:6.203447317475151 2:0.0 3:0.0 4:0.0625 5:0.0 6:0.0 7:196.0 8:0.0 
-0.08843205057154108 1:8.899438184514796 2:0.0 3:0.0 4:0.2857142984867096 5:0.0 6:0.0 7:81.0 8:0.0 
-0.11590470529645133 1:6.589465276604692 2:0.0 3:0.0 4:0.7142857313156128 5:0.0 6:0.0 7:110.0 8:0.0 
-0.0699349159398843 1:5.196152422706632 2:0.0 3:0.0 4:1.0 5:0.0 6:0.0 7:61.0 8:0.0 
-0.6050032661297472 1:4.115966043420212 2:0.0 3:0.0 4:0.095238097012043 5:0.0 6:0.0 7:98.0 8:0.0 
-0.0772789638784738 1:2.190890230020664 2:0.0 3:0.0 4:0.1190476194024086 5:0.0 6:0.0 7:57.0 8:0.0 
-0.08733839571873603 1:1.1338934190276817 2:0.0 3:0.0 4:0.190476194024086 5:0.0 6:0.0 7:69.0 8:0.0 
-0.02531631432762769 1:3.207134902949092 2:0.0 3:0.0 4:0.2380952388048172 5:0.0 6:0.0 7:36.0 8:0.0 
-0.058257417165623424 1:3.8376128944009875 2:0.0 3:0.0 4:0.2857142984867096 5:0.0 6:0.0 7:73.0 8:0.0 
-0.04523812041706186 1:1.4999999999999998 2:0.0 3:0.0 4:0.3095238208770752 5:0.0 6:0.0 7:35.0 8:0.0 
-0.04069908481552932 1:2.190890230020664 2:0.0 3:0.0 4:0.3333333432674408 5:0.0 6:0.0 7:72.0 8:0.0 
-0.5184669291720019 1:3.265986323710904 2:0.0 3:0.0 4:0.3571428656578064 5:0.0 6:0.0 7:141.0 8:0.0 
-0.1111243998399878 1:2.1213203435596424 2:0.0 3:0.0 4:0.4047619104385376 5:0.0 6:0.0 7:10.0 8:0.0 
-0.08908491759131819 1:4.242640687119285 2:0.0 3:0.0 4:0.5 5:0.0 6:0.0 7:49.0 8:0.0 
-0.2163983827326803 1:1.095445115010332 2:0.0 3:0.0 4:0.523809552192688 5:0.0 6:0.0 7:84.0 8:0.0 
-0.11072536109061248 1:2.1213203435596424 2:0.0 3:0.0 4:0.5714285969734192 5:0.0 6:0.0 7:19.0 8:0.0 
-0.0426362748674267 1:1.8973665961010273 2:0.0 3:0.0 4:0.5952380895614624 5:0.0 6:0.0 7:26.0 8:0.0 
-0.10703142769494811 1:1.7693034738587654 2:0.0 3:0.0 4:0.6190476417541504 5:0.0 6:0.0 7:118.0 8:0.0 
-0.19507591268169797 1:2.1213203435596424 2:0.0 3:0.0 4:0.6428571343421936 5:0.0 6:0.0 7:101.0 8:0.0 
-0.03353601675486423 1:3.6181361349331627 2:0.0 3:0.0 4:0.6904761791229248 5:0.0 6:0.0 7:133.0 8:0.0 
-0.08158486498156096 1:3.7032803990902057 2:0.0 3:0.0 4:0.7142857313156128 5:0.0 6:0.0 7:114.0 8:0.0 
-0.3669153367080761 1:3.8933141071383 2:0.0 3:0.0 4:0.7857142686843872 5:0.0 6:0.0 7:100.0 8:0.0 
-0.05474187462551676 1:4.381780460041328 2:0.0 3:0.0 4:0.8333333134651184 5:0.0 6:0.0 7:67.0 8:0.0 
-0.383867713223962 1:3.394112549695428 2:0.0 3:0.0 4:0.8571428656578064 5:0.0 6:0.0 7:109.0 8:0.0 
-0.06886007308458014 1:1.4999999999999998 2:0.0 3:0.0 4:0.8809523582458496 5:0.0 6:0.0 7:33.0 8:0.0 
-0.8454625512392655 1:3.7947331922020546 2:0.0 3:0.0 4:0.9047619104385376 5:0.0 6:0.0 7:106.0 8:0.0 
-0.08854672139901375 1:3.7947331922020546 2:0.0 3:0.0 4:0.9285714030265808 5:0.0 6:0.0 7:29.0 8:0.0 
-0.046325907126920446 1:3.8376128944009875 2:0.0 3:0.0 4:0.9523809552192688 5:0.0 6:0.0 7:55.0 8:0.0 
-0.10950261349336105 1:4.706787243316416 2:0.0 3:0.0 4:0.976190447807312 5:0.0 6:0.0 7:43.0 8:0.0 
-0.0673572974098321 1:2.9999999999999996 2:0.0 3:0.0 4:1.0 5:0.0 6:0.0 7:25.0 8:0.0 
-0.10896711841616263 1:2.8284271247461903 2:0.0 3:0.0 4:1.0 5:0.0 6:0.0 7:224.0 8:0.0 
-0.08321559221510011 1:1.0 2:0.0 3:0.0 4:0.024390242993831635 5:1.0 6:0.0 7:134.0 8:0.0 
-0.16207457790103524 1:4.752708206288037 2:0.0 3:0.0 4:0.04878048598766327 5:0.0 6:0.0 7:82.0 8:0.0 
-0.7640288101585231 1:4.264014327112208 2:0.0 3:0.0 4:0.0731707289814949 5:0.0 6:0.0 7:196.0 8:0.0 
-0.04766822891464959 1:4.399413450640599 2:0.0 3:0.0 4:0.09756097197532654 5:0.0 6:0.0 7:211.0 8:0.0 
-0.10962440193292988 1:4.832323597540975 2:0.0 3:0.0 4:0.12195122241973877 5:0.0 6:0.0 7:254.0 8:0.0 
-0.11117309500739037 1:4.287537606062978 2:0.0 3:0.0 4:0.17073170840740204 5:0.0 6:0.0 7:342.0 8:0.0 
-0.11109424486739716 1:3.6927447293799815 2:0.0 3:0.0 4:0.19512194395065308 5:0.0 6:0.0 7:284.0 8:0.0 
-0.08322535382413082 1:6.599663291074443 2:0.0 3:0.0 4:0.2195121943950653 5:0.0 6:0.0 7:156.0 8:0.0 
-0.01479847146065797 1:1.6329931618554518 2:0.0 3:0.0 4:0.2926829159259796 5:0.0 6:0.0 7:56.0 8:0.0 
-0.05135790232553912 1:4.27617987059879 2:0.0 3:0.0 4:0.31707316637039185 5:0.0 6:0.0 7:134.0 8:0.0 
-0.10995478641535311 1:5.229611573463398 2:0.0 3:0.0 4:0.3658536672592163 5:0.0 6:0.0 7:248.0 8:0.0 
-0.31327163354617327 1:6.368023566062788 2:0.0 3:0.0 4:0.4146341383457184 5:0.0 6:0.0 7:199.0 8:0.0 
-0.07964254308648405 1:6.54653670707977 2:0.0 3:0.0 4:0.4390243887901306 5:0.0 6:0.0 7:66.0 8:0.0 
-0.08230809693012862 1:3.360672201667223 2:0.0 3:0.0 4:0.4878048896789551 5:0.0 6:0.0 7:208.0 8:0.0 
-0.330839724330129 1:4.086031347641993 2:0.0 3:0.0 4:0.5121951103210449 5:0.0 6:0.0 7:125.0 8:0.0 
-0.09034829362186847 1:4.629100498862757 2:0.0 3:0.0 4:0.5365853905677795 5:0.0 6:0.0 7:166.0 8:0.0 
-1.0 1:2.7174648819470297 2:0.0 3:0.0 4:0.5609756112098694 5:0.0 6:0.0 7:58.0 8:0.0 
-0.05365858124523909 1:2.449489742783178 2:0.0 3:0.0 4:0.6097561120986938 5:0.0 6:0.0 7:88.0 8:0.0 
-0.08242981437184377 1:4.832323597540975 2:0.0 3:0.0 4:0.6341463327407837 5:0.0 6:0.0 7:216.0 8:0.0 
-0.08118769597442302 1:4.898979485566356 2:0.0 3:0.0 4:0.6585366129875183 5:0.0 6:0.0 7:219.0 8:0.0 
-0.09183167045511928 1:5.477225575051661 2:0.0 3:0.0 4:0.6829268336296082 5:0.0 6:0.0 7:121.0 8:0.0 
-0.11125888383133525 1:4.47213595499958 2:0.0 3:0.0 4:0.707317054271698 5:0.0 6:0.0 7:182.0 8:0.0 
-0.09317799150110762 1:2.2478059477960652 2:0.0 3:0.0 4:0.7317073345184326 5:0.0 6:0.0 7:91.0 8:0.0 
-0.33260589183152256 1:3.794733192202055 2:0.0 3:0.0 4:0.7560975551605225 5:0.0 6:0.0 7:78.0 8:0.0 
-0.0629534912559952 1:6.06217782649107 2:0.0 3:0.0 4:0.7804877758026123 5:0.0 6:0.0 7:210.0 8:0.0 
-0.03747503979521136 1:4.242640687119285 2:0.0 3:0.0 4:0.8048780560493469 5:0.0 6:0.0 7:52.0 8:0.0 
-0.018376105950883164 1:2.449489742783178 2:0.0 3:0.0 4:0.8292682766914368 5:0.0 6:0.0 7:75.0 8:0.0 
-0.07517849347726552 1:1.4142135623730951 2:0.0 3:0.0 4:0.8780487775802612 5:0.0 6:0.0 7:52.0 8:0.0 
-0.08329872542564543 1:4.54858826147342 2:0.0 3:0.0 4:0.9268292784690857 5:0.0 6:0.0 7:154.0 8:0.0 
-0.09050080270105226 1:3.0 2:0.0 3:0.0 4:0.9512194991111755 5:0.0 6:0.0 7:163.0 8:0.0 
-0.09120316857412308 1:5.5549205986353085 2:0.0 3:0.0 4:0.9756097793579102 5:0.0 6:0.0 7:36.0 8:0.0 
-0.10585230681121074 1:2.4899799195977463 2:0.0 3:0.0 4:0.0416666679084301 5:0.0 6:0.0 7:101.0 8:0.0 
-0.07490871775525582 1:2.9760952365713798 2:0.0 3:0.0 4:0.0833333358168602 5:0.0 6:0.0 7:62.0 8:0.0 
-0.015354730499580345 1:3.482877371170093 2:0.0 3:0.0 4:0.1041666641831398 5:0.0 6:0.0 7:135.0 8:0.0 
-0.09450720361123144 1:7.187952884282607 2:0.0 3:0.0 4:0.125 5:0.0 6:0.0 7:86.0 8:0.0 
